digraph Tree {
node [shape=box] ;
0 [label="X[1] <= 34208.0\nmse = 0.003\nsamples = 120\nvalue = 0.943"] ;
1 [label="X[1] <= 23773.05\nmse = 0.002\nsamples = 58\nvalue = 0.957"] ;
0 -> 1 [labeldistance=2.5, labelangle=45, headlabel="True"] ;
2 [label="X[1] <= 22896.104\nmse = 0.002\nsamples = 26\nvalue = 0.948"] ;
1 -> 2 ;
3 [label="X[1] <= 19104.5\nmse = 0.001\nsamples = 23\nvalue = 0.957"] ;
2 -> 3 ;
4 [label="X[1] <= 16148.437\nmse = 0.001\nsamples = 12\nvalue = 0.97"] ;
3 -> 4 ;
5 [label="mse = 0.001\nsamples = 7\nvalue = 0.955"] ;
4 -> 5 ;
6 [label="mse = 0.0\nsamples = 5\nvalue = 0.989"] ;
4 -> 6 ;
7 [label="X[0] <= 1707532.0\nmse = 0.001\nsamples = 11\nvalue = 0.944"] ;
3 -> 7 ;
8 [label="mse = 0.0\nsamples = 6\nvalue = 0.964"] ;
7 -> 8 ;
9 [label="mse = 0.002\nsamples = 5\nvalue = 0.92"] ;
7 -> 9 ;
10 [label="X[0] <= 1244741.562\nmse = 0.002\nsamples = 3\nvalue = 0.881"] ;
2 -> 10 ;
11 [label="X[0] <= 750947.719\nmse = 0.001\nsamples = 2\nvalue = 0.856"] ;
10 -> 11 ;
12 [label="mse = 0.0\nsamples = 1\nvalue = 0.881"] ;
11 -> 12 ;
13 [label="mse = 0.0\nsamples = 1\nvalue = 0.832"] ;
11 -> 13 ;
14 [label="mse = 0.0\nsamples = 1\nvalue = 0.929"] ;
10 -> 14 ;
15 [label="X[1] <= 25538.287\nmse = 0.001\nsamples = 32\nvalue = 0.964"] ;
1 -> 15 ;
16 [label="X[0] <= 1898025.688\nmse = 0.0\nsamples = 11\nvalue = 0.988"] ;
15 -> 16 ;
17 [label="X[0] <= 1538406.625\nmse = 0.0\nsamples = 6\nvalue = 0.994"] ;
16 -> 17 ;
18 [label="mse = 0.0\nsamples = 3\nvalue = 0.991"] ;
17 -> 18 ;
19 [label="mse = 0.0\nsamples = 3\nvalue = 0.998"] ;
17 -> 19 ;
20 [label="X[0] <= 1988269.062\nmse = 0.0\nsamples = 5\nvalue = 0.98"] ;
16 -> 20 ;
21 [label="mse = 0.0\nsamples = 1\nvalue = 0.943"] ;
20 -> 21 ;
22 [label="mse = 0.0\nsamples = 4\nvalue = 0.99"] ;
20 -> 22 ;
23 [label="X[0] <= 1171493.75\nmse = 0.001\nsamples = 21\nvalue = 0.952"] ;
15 -> 23 ;
24 [label="X[1] <= 27336.263\nmse = 0.0\nsamples = 9\nvalue = 0.971"] ;
23 -> 24 ;
25 [label="mse = 0.0\nsamples = 2\nvalue = 0.941"] ;
24 -> 25 ;
26 [label="mse = 0.0\nsamples = 7\nvalue = 0.979"] ;
24 -> 26 ;
27 [label="X[0] <= 8263177.25\nmse = 0.002\nsamples = 12\nvalue = 0.938"] ;
23 -> 27 ;
28 [label="mse = 0.002\nsamples = 6\nvalue = 0.913"] ;
27 -> 28 ;
29 [label="mse = 0.0\nsamples = 6\nvalue = 0.963"] ;
27 -> 29 ;
30 [label="X[1] <= 34358.0\nmse = 0.003\nsamples = 62\nvalue = 0.929"] ;
0 -> 30 [labeldistance=2.5, labelangle=-45, headlabel="False"] ;
31 [label="mse = 0.0\nsamples = 1\nvalue = 0.767"] ;
30 -> 31 ;
32 [label="X[1] <= 54446.0\nmse = 0.003\nsamples = 61\nvalue = 0.931"] ;
30 -> 32 ;
33 [label="X[0] <= 2367096.5\nmse = 0.003\nsamples = 42\nvalue = 0.921"] ;
32 -> 33 ;
34 [label="X[0] <= 1187192.812\nmse = 0.002\nsamples = 28\nvalue = 0.935"] ;
33 -> 34 ;
35 [label="mse = 0.003\nsamples = 13\nvalue = 0.921"] ;
34 -> 35 ;
36 [label="mse = 0.002\nsamples = 15\nvalue = 0.948"] ;
34 -> 36 ;
37 [label="X[0] <= 2643058.125\nmse = 0.003\nsamples = 14\nvalue = 0.892"] ;
33 -> 37 ;
38 [label="mse = 0.0\nsamples = 1\nvalue = 0.79"] ;
37 -> 38 ;
39 [label="mse = 0.003\nsamples = 13\nvalue = 0.9"] ;
37 -> 39 ;
40 [label="X[0] <= 5591091.5\nmse = 0.002\nsamples = 19\nvalue = 0.955"] ;
32 -> 40 ;
41 [label="X[0] <= 473617.703\nmse = 0.002\nsamples = 12\nvalue = 0.939"] ;
40 -> 41 ;
42 [label="mse = 0.0\nsamples = 2\nvalue = 0.997"] ;
41 -> 42 ;
43 [label="mse = 0.002\nsamples = 10\nvalue = 0.927"] ;
41 -> 43 ;
44 [label="X[0] <= 10638216.5\nmse = 0.001\nsamples = 7\nvalue = 0.981"] ;
40 -> 44 ;
45 [label="mse = 0.0\nsamples = 4\nvalue = 0.994"] ;
44 -> 45 ;
46 [label="mse = 0.001\nsamples = 3\nvalue = 0.964"] ;
44 -> 46 ;
}