digraph Tree {
node [shape=box] ;
0 [label="X[2] <= 13.724\nmse = 2.826\nsamples = 192\nvalue = -1.955"] ;
1 [label="X[3] <= 15.666\nmse = 5.673\nsamples = 9\nvalue = -4.464"] ;
0 -> 1 [labeldistance=2.5, labelangle=45, headlabel="True"] ;
2 [label="mse = 2.481\nsamples = 8\nvalue = -3.805"] ;
1 -> 2 ;
3 [label="mse = 0.0\nsamples = 1\nvalue = -9.73"] ;
1 -> 3 ;
4 [label="X[2] <= 30.61\nmse = 2.361\nsamples = 183\nvalue = -1.832"] ;
0 -> 4 [labeldistance=2.5, labelangle=-45, headlabel="False"] ;
5 [label="mse = 2.538\nsamples = 147\nvalue = -2.07"] ;
4 -> 5 ;
6 [label="mse = 0.462\nsamples = 36\nvalue = -0.859"] ;
4 -> 6 ;
}